<?xml version="1.0" encoding="ISO-8859-1"?>
<smile version="1.0" id="Network1" numsamples="1000" discsamples="10000">
	<nodes>
		<cpt id="Hunter">
			<state id="High" />
			<state id="Medium" />
			<state id="Low" />
			<probabilities>0.00834 0.80833 0.18333</probabilities>
		</cpt>
		<cpt id="Fishery">
			<state id="High" />
			<state id="Medium" />
			<state id="Low" />
			<probabilities>0.00834 0.80833 0.18333</probabilities>
		</cpt>
		<cpt id="Farm">
			<state id="High" />
			<state id="Medium" />
			<state id="Low" />
			<probabilities>0.00834 0.80833 0.18333</probabilities>
		</cpt>
		<cpt id="Well">
			<state id="High" />
			<state id="Medium" />
			<state id="Low" />
			<probabilities>0.0167 0.7416 0.2417</probabilities>
		</cpt>
		<cpt id="Pig_Farm">
			<state id="High" />
			<state id="Medium" />
			<state id="Low" />
			<parents>Farm Well</parents>
			<probabilities>0.6 0.35 0.05 0.4 0.475 0.125 0.325 0.35 0.325 0.4 0.475 0.125 0.2 0.6 0.2 0.125 0.475 0.4 0.325 0.35 0.325 0.125 0.475 0.4 0.05 0.35 0.6</probabilities>
		</cpt>
		<cpt id="Slaughterhouse">
			<state id="High" />
			<state id="Medium" />
			<state id="Low" />
			<parents>Pig_Farm</parents>
			<probabilities>0.6 0.35 0.05 0.2 0.6 0.2 0.05 0.35 0.6</probabilities>
		</cpt>
		<cpt id="Mill">
			<state id="High" />
			<state id="Medium" />
			<state id="Low" />
			<parents>Farm</parents>
			<probabilities>0.6 0.35 0.05 0.2 0.6 0.2 0.05 0.35 0.6</probabilities>
		</cpt>
		<cpt id="Bakery">
			<state id="High" />
			<state id="Medium" />
			<state id="Low" />
			<parents>Mill Well</parents>
			<probabilities>0.6 0.35 0.05 0.4 0.475 0.125 0.325 0.35 0.325 0.4 0.475 0.125 0.2 0.6 0.2 0.125 0.475 0.4 0.325 0.35 0.325 0.125 0.475 0.4 0.05 0.35 0.6</probabilities>
		</cpt>
		<cpt id="Coal_Mine">
			<state id="High" />
			<state id="Medium" />
			<state id="Low" />
			<parents>Hunter Fishery Slaughterhouse Bakery</parents>
			<probabilities>0.6 0.35 0.05 0.5 0.4125 0.08749999999999999 0.4625 0.35 0.1875 0.5 0.4125 0.08749999999999999 0.4 0.475 0.125 0.3625 0.4125 0.225 0.4625 0.35 0.1875 0.3625 0.4125 0.225 0.325 0.35 0.325 0.5 0.4125 0.08749999999999999 0.4 0.475 0.125 0.3625 0.4125 0.225 0.4 0.475 0.125 0.3 0.5375 0.1625 0.2625 0.475 0.2625 0.3625 0.4125 0.225 0.2625 0.475 0.2625 0.225 0.4125 0.3625 0.4625 0.35 0.1875 0.3625 0.4125 0.225 0.325 0.35 0.325 0.3625 0.4125 0.225 0.2625 0.475 0.2625 0.225 0.4125 0.3625 0.325 0.35 0.325 0.225 0.4125 0.3625 0.1875 0.35 0.4625 0.5 0.4125 0.08749999999999999 0.4 0.475 0.125 0.3625 0.4125 0.225 0.4 0.475 0.125 0.3 0.5375 0.1625 0.2625 0.475 0.2625 0.3625 0.4125 0.225 0.2625 0.475 0.2625 0.225 0.4125 0.3625 0.4 0.475 0.125 0.3 0.5375 0.1625 0.2625 0.475 0.2625 0.3 0.5375 0.1625 0.2 0.6 0.2 0.1625 0.5375 0.3 0.2625 0.475 0.2625 0.1625 0.5375 0.3 0.125 0.475 0.4 0.3625 0.4125 0.225 0.2625 0.475 0.2625 0.225 0.4125 0.3625 0.2625 0.475 0.2625 0.1625 0.5375 0.3 0.125 0.475 0.4 0.225 0.4125 0.3625 0.125 0.475 0.4 0.08749999999999999 0.4125 0.5 0.4625 0.35 0.1875 0.3625 0.4125 0.225 0.325 0.35 0.325 0.3625 0.4125 0.225 0.2625 0.475 0.2625 0.225 0.4125 0.3625 0.325 0.35 0.325 0.225 0.4125 0.3625 0.1875 0.35 0.4625 0.3625 0.4125 0.225 0.2625 0.475 0.2625 0.225 0.4125 0.3625 0.2625 0.475 0.2625 0.1625 0.5375 0.3 0.125 0.475 0.4 0.225 0.4125 0.3625 0.125 0.475 0.4 0.08749999999999999 0.4125 0.5 0.325 0.35 0.325 0.225 0.4125 0.3625 0.1875 0.35 0.4625 0.225 0.4125 0.3625 0.125 0.475 0.4 0.08749999999999999 0.4125 0.5 0.1875 0.35 0.4625 0.08749999999999999 0.4125 0.5 0.05 0.35 0.6</probabilities>
		</cpt>
		<cpt id="Iron_Mine">
			<state id="High" />
			<state id="Medium" />
			<state id="Low" />
			<parents>Hunter Fishery Slaughterhouse Bakery</parents>
			<probabilities>0.6 0.35 0.05 0.5 0.4125 0.08749999999999999 0.4625 0.35 0.1875 0.5 0.4125 0.08749999999999999 0.4 0.475 0.125 0.3625 0.4125 0.225 0.4625 0.35 0.1875 0.3625 0.4125 0.225 0.325 0.35 0.325 0.5 0.4125 0.08749999999999999 0.4 0.475 0.125 0.3625 0.4125 0.225 0.4 0.475 0.125 0.3 0.5375 0.1625 0.2625 0.475 0.2625 0.3625 0.4125 0.225 0.2625 0.475 0.2625 0.225 0.4125 0.3625 0.4625 0.35 0.1875 0.3625 0.4125 0.225 0.325 0.35 0.325 0.3625 0.4125 0.225 0.2625 0.475 0.2625 0.225 0.4125 0.3625 0.325 0.35 0.325 0.225 0.4125 0.3625 0.1875 0.35 0.4625 0.5 0.4125 0.08749999999999999 0.4 0.475 0.125 0.3625 0.4125 0.225 0.4 0.475 0.125 0.3 0.5375 0.1625 0.2625 0.475 0.2625 0.3625 0.4125 0.225 0.2625 0.475 0.2625 0.225 0.4125 0.3625 0.4 0.475 0.125 0.3 0.5375 0.1625 0.2625 0.475 0.2625 0.3 0.5375 0.1625 0.2 0.6 0.2 0.1625 0.5375 0.3 0.2625 0.475 0.2625 0.1625 0.5375 0.3 0.125 0.475 0.4 0.3625 0.4125 0.225 0.2625 0.475 0.2625 0.225 0.4125 0.3625 0.2625 0.475 0.2625 0.1625 0.5375 0.3 0.125 0.475 0.4 0.225 0.4125 0.3625 0.125 0.475 0.4 0.08749999999999999 0.4125 0.5 0.4625 0.35 0.1875 0.3625 0.4125 0.225 0.325 0.35 0.325 0.3625 0.4125 0.225 0.2625 0.475 0.2625 0.225 0.4125 0.3625 0.325 0.35 0.325 0.225 0.4125 0.3625 0.1875 0.35 0.4625 0.3625 0.4125 0.225 0.2625 0.475 0.2625 0.225 0.4125 0.3625 0.2625 0.475 0.2625 0.1625 0.5375 0.3 0.125 0.475 0.4 0.225 0.4125 0.3625 0.125 0.475 0.4 0.08749999999999999 0.4125 0.5 0.325 0.35 0.325 0.225 0.4125 0.3625 0.1875 0.35 0.4625 0.225 0.4125 0.3625 0.125 0.475 0.4 0.08749999999999999 0.4125 0.5 0.1875 0.35 0.4625 0.08749999999999999 0.4125 0.5 0.05 0.35 0.6</probabilities>
		</cpt>
		<cpt id="Iron_Smelter">
			<state id="High" />
			<state id="Medium" />
			<state id="Low" />
			<parents>Coal_Mine Iron_Mine</parents>
			<probabilities>0.6 0.35 0.05 0.4 0.475 0.125 0.325 0.35 0.325 0.4 0.475 0.125 0.2 0.6 0.2 0.125 0.475 0.4 0.325 0.35 0.325 0.125 0.475 0.4 0.05 0.35 0.6</probabilities>
		</cpt>
		<cpt id="Armory">
			<state id="High" />
			<state id="Medium" />
			<state id="Low" />
			<parents>Iron_Smelter Coal_Mine</parents>
			<probabilities>0.6 0.35 0.05 0.4 0.475 0.125 0.325 0.35 0.325 0.4 0.475 0.125 0.2 0.6 0.2 0.125 0.475 0.4 0.325 0.35 0.325 0.125 0.475 0.4 0.05 0.35 0.6</probabilities>
		</cpt>
		<cpt id="Gold_Mine">
			<state id="High" />
			<state id="Medium" />
			<state id="Low" />
			<parents>Hunter Fishery Slaughterhouse Bakery</parents>
			<probabilities>0.6 0.35 0.05 0.5 0.4125 0.08749999999999999 0.4625 0.35 0.1875 0.5 0.4125 0.08749999999999999 0.4 0.475 0.125 0.3625 0.4125 0.225 0.4625 0.35 0.1875 0.3625 0.4125 0.225 0.325 0.35 0.325 0.5 0.4125 0.08749999999999999 0.4 0.475 0.125 0.3625 0.4125 0.225 0.4 0.475 0.125 0.3 0.5375 0.1625 0.2625 0.475 0.2625 0.3625 0.4125 0.225 0.2625 0.475 0.2625 0.225 0.4125 0.3625 0.4625 0.35 0.1875 0.3625 0.4125 0.225 0.325 0.35 0.325 0.3625 0.4125 0.225 0.2625 0.475 0.2625 0.225 0.4125 0.3625 0.325 0.35 0.325 0.225 0.4125 0.3625 0.1875 0.35 0.4625 0.5 0.4125 0.08749999999999999 0.4 0.475 0.125 0.3625 0.4125 0.225 0.4 0.475 0.125 0.3 0.5375 0.1625 0.2625 0.475 0.2625 0.3625 0.4125 0.225 0.2625 0.475 0.2625 0.225 0.4125 0.3625 0.4 0.475 0.125 0.3 0.5375 0.1625 0.2625 0.475 0.2625 0.3 0.5375 0.1625 0.2 0.6 0.2 0.1625 0.5375 0.3 0.2625 0.475 0.2625 0.1625 0.5375 0.3 0.125 0.475 0.4 0.3625 0.4125 0.225 0.2625 0.475 0.2625 0.225 0.4125 0.3625 0.2625 0.475 0.2625 0.1625 0.5375 0.3 0.125 0.475 0.4 0.225 0.4125 0.3625 0.125 0.475 0.4 0.08749999999999999 0.4125 0.5 0.4625 0.35 0.1875 0.3625 0.4125 0.225 0.325 0.35 0.325 0.3625 0.4125 0.225 0.2625 0.475 0.2625 0.225 0.4125 0.3625 0.325 0.35 0.325 0.225 0.4125 0.3625 0.1875 0.35 0.4625 0.3625 0.4125 0.225 0.2625 0.475 0.2625 0.225 0.4125 0.3625 0.2625 0.475 0.2625 0.1625 0.5375 0.3 0.125 0.475 0.4 0.225 0.4125 0.3625 0.125 0.475 0.4 0.08749999999999999 0.4125 0.5 0.325 0.35 0.325 0.225 0.4125 0.3625 0.1875 0.35 0.4625 0.225 0.4125 0.3625 0.125 0.475 0.4 0.08749999999999999 0.4125 0.5 0.1875 0.35 0.4625 0.08749999999999999 0.4125 0.5 0.05 0.35 0.6</probabilities>
		</cpt>
		<cpt id="Mint">
			<state id="High" />
			<state id="Medium" />
			<state id="Low" />
			<parents>Coal_Mine Gold_Mine</parents>
			<probabilities>0.6 0.35 0.05 0.4 0.475 0.125 0.325 0.35 0.325 0.4 0.475 0.125 0.2 0.6 0.2 0.125 0.475 0.4 0.325 0.35 0.325 0.125 0.475 0.4 0.05 0.35 0.6</probabilities>
		</cpt>
		<cpt id="Brewery">
			<state id="High" />
			<state id="Medium" />
			<state id="Low" />
			<parents>Farm Well</parents>
			<probabilities>0.6 0.35 0.05 0.4 0.475 0.125 0.325 0.35 0.325 0.4 0.475 0.125 0.2 0.6 0.2 0.125 0.475 0.4 0.325 0.35 0.325 0.125 0.475 0.4 0.05 0.35 0.6</probabilities>
		</cpt>
		<cpt id="Headquarters">
			<state id="General" />
			<state id="Officer" />
			<state id="Sargent" />
			<state id="Corporal" />
			<state id="Private" />
			<parents>Armory Mint Brewery</parents>
			<probabilities>0.2 0.2 0.2 0.2 0.2 0.2 0.2 0.2 0.2 0.2 0.2 0.2 0.2 0.2 0.2 0.2 0.2 0.2 0.2 0.2 0.2 0.2 0.2 0.2 0.2 0.2 0.2 0.2 0.2 0.2 0.2 0.2 0.2 0.2 0.2 0.2 0.2 0.2 0.2 0.2 0.2 0.2 0.2 0.2 0.2 0.2 0.2 0.2 0.2 0.2 0.2 0.2 0.2 0.2 0.2 0.2 0.2 0.2 0.2 0.2 0.2 0.2 0.2 0.2 0.2 0.2 0.2 0.2 0.2 0.2 0.2 0.2 0.2 0.2 0.2 0.2 0.2 0.2 0.2 0.2 0.2 0.2 0.2 0.2 0.2 0.2 0.2 0.2 0.2 0.2 0.2 0.2 0.2 0.2 0.2 0.2 0.2 0.2 0.2 0.2 0.2 0.2 0.2 0.2 0.2 0.2 0.2 0.2 0.2 0.2 0.2 0.2 0.2 0.2 0.2 0.2 0.2 0.2 0.2 0.2 0.2 0.2 0.2 0.2 0.2 0.2 0.2 0.2 0.2 0.2 0.2 0.2 0.2 0.2 0.2</probabilities>
		</cpt>
		<cpt id="Barracks">
			<state id="General" />
			<state id="Officer" />
			<state id="Sargent" />
			<state id="Corporal" />
			<state id="Private" />
			<parents>Headquarters Mint</parents>
			<probabilities>0.2 0.2 0.2 0.2 0.2 0.2 0.2 0.2 0.2 0.2 0.2 0.2 0.2 0.2 0.2 0.2 0.2 0.2 0.2 0.2 0.2 0.2 0.2 0.2 0.2 0.2 0.2 0.2 0.2 0.2 0.2 0.2 0.2 0.2 0.2 0.2 0.2 0.2 0.2 0.2 0.2 0.2 0.2 0.2 0.2 0.2 0.2 0.2 0.2 0.2 0.2 0.2 0.2 0.2 0.2 0.2 0.2 0.2 0.2 0.2 0.2 0.2 0.2 0.2 0.2 0.2 0.2 0.2 0.2 0.2 0.2 0.2 0.2 0.2 0.2</probabilities>
		</cpt>
		<cpt id="Guardhouse">
			<state id="General" />
			<state id="Officer" />
			<state id="Sargent" />
			<state id="Corporal" />
			<state id="Private" />
			<parents>Headquarters Mint</parents>
			<probabilities>0.2 0.2 0.2 0.2 0.2 0.2 0.2 0.2 0.2 0.2 0.2 0.2 0.2 0.2 0.2 0.2 0.2 0.2 0.2 0.2 0.2 0.2 0.2 0.2 0.2 0.2 0.2 0.2 0.2 0.2 0.2 0.2 0.2 0.2 0.2 0.2 0.2 0.2 0.2 0.2 0.2 0.2 0.2 0.2 0.2 0.2 0.2 0.2 0.2 0.2 0.2 0.2 0.2 0.2 0.2 0.2 0.2 0.2 0.2 0.2 0.2 0.2 0.2 0.2 0.2 0.2 0.2 0.2 0.2 0.2 0.2 0.2 0.2 0.2 0.2</probabilities>
		</cpt>
		<cpt id="Fortress">
			<state id="General" />
			<state id="Officer" />
			<state id="Sargent" />
			<state id="Corporal" />
			<state id="Private" />
			<parents>Headquarters Mint</parents>
			<probabilities>0.2 0.2 0.2 0.2 0.2 0.2 0.2 0.2 0.2 0.2 0.2 0.2 0.2 0.2 0.2 0.2 0.2 0.2 0.2 0.2 0.2 0.2 0.2 0.2 0.2 0.2 0.2 0.2 0.2 0.2 0.2 0.2 0.2 0.2 0.2 0.2 0.2 0.2 0.2 0.2 0.2 0.2 0.2 0.2 0.2 0.2 0.2 0.2 0.2 0.2 0.2 0.2 0.2 0.2 0.2 0.2 0.2 0.2 0.2 0.2 0.2 0.2 0.2 0.2 0.2 0.2 0.2 0.2 0.2 0.2 0.2 0.2 0.2 0.2 0.2</probabilities>
		</cpt>
		<cpt id="Stonemason">
			<state id="High" />
			<state id="Medium" />
			<state id="Low" />
			<probabilities>0.0583 0.8083 0.1334</probabilities>
		</cpt>
		<cpt id="Granite_Mine">
			<state id="High" />
			<state id="Medium" />
			<state id="Low" />
			<parents>Hunter Fishery Slaughterhouse Bakery</parents>
			<probabilities>0.6 0.35 0.05 0.5 0.4125 0.08749999999999999 0.4625 0.35 0.1875 0.5 0.4125 0.08749999999999999 0.4 0.475 0.125 0.3625 0.4125 0.225 0.4625 0.35 0.1875 0.3625 0.4125 0.225 0.325 0.35 0.325 0.5 0.4125 0.08749999999999999 0.4 0.475 0.125 0.3625 0.4125 0.225 0.4 0.475 0.125 0.3 0.5375 0.1625 0.2625 0.475 0.2625 0.3625 0.4125 0.225 0.2625 0.475 0.2625 0.225 0.4125 0.3625 0.4625 0.35 0.1875 0.3625 0.4125 0.225 0.325 0.35 0.325 0.3625 0.4125 0.225 0.2625 0.475 0.2625 0.225 0.4125 0.3625 0.325 0.35 0.325 0.225 0.4125 0.3625 0.1875 0.35 0.4625 0.5 0.4125 0.08749999999999999 0.4 0.475 0.125 0.3625 0.4125 0.225 0.4 0.475 0.125 0.3 0.5375 0.1625 0.2625 0.475 0.2625 0.3625 0.4125 0.225 0.2625 0.475 0.2625 0.225 0.4125 0.3625 0.4 0.475 0.125 0.3 0.5375 0.1625 0.2625 0.475 0.2625 0.3 0.5375 0.1625 0.2 0.6 0.2 0.1625 0.5375 0.3 0.2625 0.475 0.2625 0.1625 0.5375 0.3 0.125 0.475 0.4 0.3625 0.4125 0.225 0.2625 0.475 0.2625 0.225 0.4125 0.3625 0.2625 0.475 0.2625 0.1625 0.5375 0.3 0.125 0.475 0.4 0.225 0.4125 0.3625 0.125 0.475 0.4 0.08749999999999999 0.4125 0.5 0.4625 0.35 0.1875 0.3625 0.4125 0.225 0.325 0.35 0.325 0.3625 0.4125 0.225 0.2625 0.475 0.2625 0.225 0.4125 0.3625 0.325 0.35 0.325 0.225 0.4125 0.3625 0.1875 0.35 0.4625 0.3625 0.4125 0.225 0.2625 0.475 0.2625 0.225 0.4125 0.3625 0.2625 0.475 0.2625 0.1625 0.5375 0.3 0.125 0.475 0.4 0.225 0.4125 0.3625 0.125 0.475 0.4 0.08749999999999999 0.4125 0.5 0.325 0.35 0.325 0.225 0.4125 0.3625 0.1875 0.35 0.4625 0.225 0.4125 0.3625 0.125 0.475 0.4 0.08749999999999999 0.4125 0.5 0.1875 0.35 0.4625 0.08749999999999999 0.4125 0.5 0.05 0.35 0.6</probabilities>
		</cpt>
		<cpt id="Catapult">
			<state id="High" />
			<state id="Medium" />
			<state id="Low" />
			<parents>Stonemason Granite_Mine</parents>
			<probabilities>0.6 0.35 0.05 0.4 0.475 0.125 0.325 0.35 0.325 0.4 0.475 0.125 0.2 0.6 0.2 0.125 0.475 0.4 0.325 0.35 0.325 0.125 0.475 0.4 0.05 0.35 0.6</probabilities>
		</cpt>
		<cpt id="Watchtower">
			<state id="General" />
			<state id="Officer" />
			<state id="Sargent" />
			<state id="Corporal" />
			<state id="Private" />
			<parents>Headquarters Mint</parents>
			<probabilities>0.2 0.2 0.2 0.2 0.2 0.2 0.2 0.2 0.2 0.2 0.2 0.2 0.2 0.2 0.2 0.2 0.2 0.2 0.2 0.2 0.2 0.2 0.2 0.2 0.2 0.2 0.2 0.2 0.2 0.2 0.2 0.2 0.2 0.2 0.2 0.2 0.2 0.2 0.2 0.2 0.2 0.2 0.2 0.2 0.2 0.2 0.2 0.2 0.2 0.2 0.2 0.2 0.2 0.2 0.2 0.2 0.2 0.2 0.2 0.2 0.2 0.2 0.2 0.2 0.2 0.2 0.2 0.2 0.2 0.2 0.2 0.2 0.2 0.2 0.2</probabilities>
		</cpt>
		<cpt id="Game_Outcome">
			<state id="Victory" />
			<state id="Tie" />
			<state id="Defeat" />
			<parents>Catapult Barracks Guardhouse Watchtower Fortress</parents>
			<probabilities>0.33 0.34 0.33 0.33 0.34 0.33 0.33 0.34 0.33 0.33 0.34 0.33 0.33 0.34 0.33 0.33 0.34 0.33 0.33 0.34 0.33 0.33 0.34 0.33 0.33 0.34 0.33 0.33 0.34 0.33 0.33 0.34 0.33 0.33 0.34 0.33 0.33 0.34 0.33 0.33 0.34 0.33 0.33 0.34 0.33 0.33 0.34 0.33 0.33 0.34 0.33 0.33 0.34 0.33 0.33 0.34 0.33 0.33 0.34 0.33 0.33 0.34 0.33 0.33 0.34 0.33 0.33 0.34 0.33 0.33 0.34 0.33 0.33 0.34 0.33 0.33 0.34 0.33 0.33 0.34 0.33 0.33 0.34 0.33 0.33 0.34 0.33 0.33 0.34 0.33 0.33 0.34 0.33 0.33 0.34 0.33 0.33 0.34 0.33 0.33 0.34 0.33 0.33 0.34 0.33 0.33 0.34 0.33 0.33 0.34 0.33 0.33 0.34 0.33 0.33 0.34 0.33 0.33 0.34 0.33 0.33 0.34 0.33 0.33 0.34 0.33 0.33 0.34 0.33 0.33 0.34 0.33 0.33 0.34 0.33 0.33 0.34 0.33 0.33 0.34 0.33 0.33 0.34 0.33 0.33 0.34 0.33 0.33 0.34 0.33 0.33 0.34 0.33 0.33 0.34 0.33 0.33 0.34 0.33 0.33 0.34 0.33 0.33 0.34 0.33 0.33 0.34 0.33 0.33 0.34 0.33 0.33 0.34 0.33 0.33 0.34 0.33 0.33 0.34 0.33 0.33 0.34 0.33 0.33 0.34 0.33 0.33 0.34 0.33 0.33 0.34 0.33 0.33 0.34 0.33 0.33 0.34 0.33 0.33 0.34 0.33 0.33 0.34 0.33 0.33 0.34 0.33 0.33 0.34 0.33 0.33 0.34 0.33 0.33 0.34 0.33 0.33 0.34 0.33 0.33 0.34 0.33 0.33 0.34 0.33 0.33 0.34 0.33 0.33 0.34 0.33 0.33 0.34 0.33 0.33 0.34 0.33 0.33 0.34 0.33 0.33 0.34 0.33 0.33 0.34 0.33 0.33 0.34 0.33 0.33 0.34 0.33 0.33 0.34 0.33 0.33 0.34 0.33 0.33 0.34 0.33 0.33 0.34 0.33 0.33 0.34 0.33 0.33 0.34 0.33 0.33 0.34 0.33 0.33 0.34 0.33 0.33 0.34 0.33 0.33 0.34 0.33 0.33 0.34 0.33 0.33 0.34 0.33 0.33 0.34 0.33 0.33 0.34 0.33 0.33 0.34 0.33 0.33 0.34 0.33 0.33 0.34 0.33 0.33 0.34 0.33 0.33 0.34 0.33 0.33 0.34 0.33 0.33 0.34 0.33 0.33 0.34 0.33 0.33 0.34 0.33 0.33 0.34 0.33 0.33 0.34 0.33 0.33 0.34 0.33 0.33 0.34 0.33 0.33 0.34 0.33 0.33 0.34 0.33 0.33 0.34 0.33 0.33 0.34 0.33 0.33 0.34 0.33 0.33 0.34 0.33 0.33 0.34 0.33 0.33 0.34 0.33 0.33 0.34 0.33 0.33 0.34 0.33 0.33 0.34 0.33 0.33 0.34 0.33 0.33 0.34 0.33 0.33 0.34 0.33 0.33 0.34 0.33 0.33 0.34 0.33 0.33 0.34 0.33 0.33 0.34 0.33 0.33 0.34 0.33 0.33 0.34 0.33 0.33 0.34 0.33 0.33 0.34 0.33 0.33 0.34 0.33 0.33 0.34 0.33 0.33 0.34 0.33 0.33 0.34 0.33 0.33 0.34 0.33 0.33 0.34 0.33 0.33 0.34 0.33 0.33 0.34 0.33 0.33 0.34 0.33 0.33 0.34 0.33 0.33 0.34 0.33 0.33 0.34 0.33 0.33 0.34 0.33 0.33 0.34 0.33 0.33 0.34 0.33 0.33 0.34 0.33 0.33 0.34 0.33 0.33 0.34 0.33 0.33 0.34 0.33 0.33 0.34 0.33 0.33 0.34 0.33 0.33 0.34 0.33 0.33 0.34 0.33 0.33 0.34 0.33 0.33 0.34 0.33 0.33 0.34 0.33 0.33 0.34 0.33 0.33 0.34 0.33 0.33 0.34 0.33 0.33 0.34 0.33 0.33 0.34 0.33 0.33 0.34 0.33 0.33 0.34 0.33 0.33 0.34 0.33 0.33 0.34 0.33 0.33 0.34 0.33 0.33 0.34 0.33 0.33 0.34 0.33 0.33 0.34 0.33 0.33 0.34 0.33 0.33 0.34 0.33 0.33 0.34 0.33 0.33 0.34 0.33 0.33 0.34 0.33 0.33 0.34 0.33 0.33 0.34 0.33 0.33 0.34 0.33 0.33 0.34 0.33 0.33 0.34 0.33 0.33 0.34 0.33 0.33 0.34 0.33 0.33 0.34 0.33 0.33 0.34 0.33 0.33 0.34 0.33 0.33 0.34 0.33 0.33 0.34 0.33 0.33 0.34 0.33 0.33 0.34 0.33 0.33 0.34 0.33 0.33 0.34 0.33 0.33 0.34 0.33 0.33 0.34 0.33 0.33 0.34 0.33 0.33 0.34 0.33 0.33 0.34 0.33 0.33 0.34 0.33 0.33 0.34 0.33 0.33 0.34 0.33 0.33 0.34 0.33 0.33 0.34 0.33 0.33 0.34 0.33 0.33 0.34 0.33 0.33 0.34 0.33 0.33 0.34 0.33 0.33 0.34 0.33 0.33 0.34 0.33 0.33 0.34 0.33 0.33 0.34 0.33 0.33 0.34 0.33 0.33 0.34 0.33 0.33 0.34 0.33 0.33 0.34 0.33 0.33 0.34 0.33 0.33 0.34 0.33 0.33 0.34 0.33 0.33 0.34 0.33 0.33 0.34 0.33 0.33 0.34 0.33 0.33 0.34 0.33 0.33 0.34 0.33 0.33 0.34 0.33 0.33 0.34 0.33 0.33 0.34 0.33 0.33 0.34 0.33 0.33 0.34 0.33 0.33 0.34 0.33 0.33 0.34 0.33 0.33 0.34 0.33 0.33 0.34 0.33 0.33 0.34 0.33 0.33 0.34 0.33 0.33 0.34 0.33 0.33 0.34 0.33 0.33 0.34 0.33 0.33 0.34 0.33 0.33 0.34 0.33 0.33 0.34 0.33 0.33 0.34 0.33 0.33 0.34 0.33 0.33 0.34 0.33 0.33 0.34 0.33 0.33 0.34 0.33 0.33 0.34 0.33 0.33 0.34 0.33 0.33 0.34 0.33 0.33 0.34 0.33 0.33 0.34 0.33 0.33 0.34 0.33 0.33 0.34 0.33 0.33 0.34 0.33 0.33 0.34 0.33 0.33 0.34 0.33 0.33 0.34 0.33 0.33 0.34 0.33 0.33 0.34 0.33 0.33 0.34 0.33 0.33 0.34 0.33 0.33 0.34 0.33 0.33 0.34 0.33 0.33 0.34 0.33 0.33 0.34 0.33 0.33 0.34 0.33 0.33 0.34 0.33 0.33 0.34 0.33 0.33 0.34 0.33 0.33 0.34 0.33 0.33 0.34 0.33 0.33 0.34 0.33 0.33 0.34 0.33 0.33 0.34 0.33 0.33 0.34 0.33 0.33 0.34 0.33 0.33 0.34 0.33 0.33 0.34 0.33 0.33 0.34 0.33 0.33 0.34 0.33 0.33 0.34 0.33 0.33 0.34 0.33 0.33 0.34 0.33 0.33 0.34 0.33 0.33 0.34 0.33 0.33 0.34 0.33 0.33 0.34 0.33 0.33 0.34 0.33 0.33 0.34 0.33 0.33 0.34 0.33 0.33 0.34 0.33 0.33 0.34 0.33 0.33 0.34 0.33 0.33 0.34 0.33 0.33 0.34 0.33 0.33 0.34 0.33 0.33 0.34 0.33 0.33 0.34 0.33 0.33 0.34 0.33 0.33 0.34 0.33 0.33 0.34 0.33 0.33 0.34 0.33 0.33 0.34 0.33 0.33 0.34 0.33 0.33 0.34 0.33 0.33 0.34 0.33 0.33 0.34 0.33 0.33 0.34 0.33 0.33 0.34 0.33 0.33 0.34 0.33 0.33 0.34 0.33 0.33 0.34 0.33 0.33 0.34 0.33 0.33 0.34 0.33 0.33 0.34 0.33 0.33 0.34 0.33 0.33 0.34 0.33 0.33 0.34 0.33 0.33 0.34 0.33 0.33 0.34 0.33 0.33 0.34 0.33 0.33 0.34 0.33 0.33 0.34 0.33 0.33 0.34 0.33 0.33 0.34 0.33 0.33 0.34 0.33 0.33 0.34 0.33 0.33 0.34 0.33 0.33 0.34 0.33 0.33 0.34 0.33 0.33 0.34 0.33 0.33 0.34 0.33 0.33 0.34 0.33 0.33 0.34 0.33 0.33 0.34 0.33 0.33 0.34 0.33 0.33 0.34 0.33 0.33 0.34 0.33 0.33 0.34 0.33 0.33 0.34 0.33 0.33 0.34 0.33 0.33 0.34 0.33 0.33 0.34 0.33 0.33 0.34 0.33 0.33 0.34 0.33 0.33 0.34 0.33 0.33 0.34 0.33 0.33 0.34 0.33 0.33 0.34 0.33 0.33 0.34 0.33 0.33 0.34 0.33 0.33 0.34 0.33 0.33 0.34 0.33 0.33 0.34 0.33 0.33 0.34 0.33 0.33 0.34 0.33 0.33 0.34 0.33 0.33 0.34 0.33 0.33 0.34 0.33 0.33 0.34 0.33 0.33 0.34 0.33 0.33 0.34 0.33 0.33 0.34 0.33 0.33 0.34 0.33 0.33 0.34 0.33 0.33 0.34 0.33 0.33 0.34 0.33 0.33 0.34 0.33 0.33 0.34 0.33 0.33 0.34 0.33 0.33 0.34 0.33 0.33 0.34 0.33 0.33 0.34 0.33 0.33 0.34 0.33 0.33 0.34 0.33 0.33 0.34 0.33 0.33 0.34 0.33 0.33 0.34 0.33 0.33 0.34 0.33 0.33 0.34 0.33 0.33 0.34 0.33 0.33 0.34 0.33 0.33 0.34 0.33 0.33 0.34 0.33 0.33 0.34 0.33 0.33 0.34 0.33 0.33 0.34 0.33 0.33 0.34 0.33 0.33 0.34 0.33 0.33 0.34 0.33 0.33 0.34 0.33 0.33 0.34 0.33 0.33 0.34 0.33 0.33 0.34 0.33 0.33 0.34 0.33 0.33 0.34 0.33 0.33 0.34 0.33 0.33 0.34 0.33 0.33 0.34 0.33 0.33 0.34 0.33 0.33 0.34 0.33 0.33 0.34 0.33 0.33 0.34 0.33 0.33 0.34 0.33 0.33 0.34 0.33 0.33 0.34 0.33 0.33 0.34 0.33 0.33 0.34 0.33 0.33 0.34 0.33 0.33 0.34 0.33 0.33 0.34 0.33 0.33 0.34 0.33 0.33 0.34 0.33 0.33 0.34 0.33 0.33 0.34 0.33 0.33 0.34 0.33 0.33 0.34 0.33 0.33 0.34 0.33 0.33 0.34 0.33 0.33 0.34 0.33 0.33 0.34 0.33 0.33 0.34 0.33 0.33 0.34 0.33 0.33 0.34 0.33 0.33 0.34 0.33 0.33 0.34 0.33 0.33 0.34 0.33 0.33 0.34 0.33 0.33 0.34 0.33 0.33 0.34 0.33 0.33 0.34 0.33 0.33 0.34 0.33 0.33 0.34 0.33 0.33 0.34 0.33 0.33 0.34 0.33 0.33 0.34 0.33 0.33 0.34 0.33 0.33 0.34 0.33 0.33 0.34 0.33 0.33 0.34 0.33 0.33 0.34 0.33 0.33 0.34 0.33 0.33 0.34 0.33 0.33 0.34 0.33 0.33 0.34 0.33 0.33 0.34 0.33 0.33 0.34 0.33 0.33 0.34 0.33 0.33 0.34 0.33 0.33 0.34 0.33 0.33 0.34 0.33 0.33 0.34 0.33 0.33 0.34 0.33 0.33 0.34 0.33 0.33 0.34 0.33 0.33 0.34 0.33 0.33 0.34 0.33 0.33 0.34 0.33 0.33 0.34 0.33 0.33 0.34 0.33 0.33 0.34 0.33 0.33 0.34 0.33 0.33 0.34 0.33 0.33 0.34 0.33 0.33 0.34 0.33 0.33 0.34 0.33 0.33 0.34 0.33 0.33 0.34 0.33 0.33 0.34 0.33 0.33 0.34 0.33 0.33 0.34 0.33 0.33 0.34 0.33 0.33 0.34 0.33 0.33 0.34 0.33 0.33 0.34 0.33 0.33 0.34 0.33 0.33 0.34 0.33 0.33 0.34 0.33 0.33 0.34 0.33 0.33 0.34 0.33 0.33 0.34 0.33 0.33 0.34 0.33 0.33 0.34 0.33 0.33 0.34 0.33 0.33 0.34 0.33 0.33 0.34 0.33 0.33 0.34 0.33 0.33 0.34 0.33 0.33 0.34 0.33 0.33 0.34 0.33 0.33 0.34 0.33 0.33 0.34 0.33 0.33 0.34 0.33 0.33 0.34 0.33 0.33 0.34 0.33 0.33 0.34 0.33 0.33 0.34 0.33 0.33 0.34 0.33 0.33 0.34 0.33 0.33 0.34 0.33 0.33 0.34 0.33 0.33 0.34 0.33 0.33 0.34 0.33 0.33 0.34 0.33 0.33 0.34 0.33 0.33 0.34 0.33 0.33 0.34 0.33 0.33 0.34 0.33 0.33 0.34 0.33 0.33 0.34 0.33 0.33 0.34 0.33 0.33 0.34 0.33 0.33 0.34 0.33 0.33 0.34 0.33 0.33 0.34 0.33 0.33 0.34 0.33 0.33 0.34 0.33 0.33 0.34 0.33 0.33 0.34 0.33 0.33 0.34 0.33 0.33 0.34 0.33 0.33 0.34 0.33 0.33 0.34 0.33 0.33 0.34 0.33 0.33 0.34 0.33 0.33 0.34 0.33 0.33 0.34 0.33 0.33 0.34 0.33 0.33 0.34 0.33 0.33 0.34 0.33 0.33 0.34 0.33 0.33 0.34 0.33 0.33 0.34 0.33 0.33 0.34 0.33 0.33 0.34 0.33 0.33 0.34 0.33 0.33 0.34 0.33 0.33 0.34 0.33 0.33 0.34 0.33 0.33 0.34 0.33 0.33 0.34 0.33 0.33 0.34 0.33 0.33 0.34 0.33 0.33 0.34 0.33 0.33 0.34 0.33 0.33 0.34 0.33 0.33 0.34 0.33 0.33 0.34 0.33 0.33 0.34 0.33 0.33 0.34 0.33 0.33 0.34 0.33 0.33 0.34 0.33 0.33 0.34 0.33 0.33 0.34 0.33 0.33 0.34 0.33 0.33 0.34 0.33 0.33 0.34 0.33 0.33 0.34 0.33 0.33 0.34 0.33 0.33 0.34 0.33 0.33 0.34 0.33 0.33 0.34 0.33 0.33 0.34 0.33 0.33 0.34 0.33 0.33 0.34 0.33 0.33 0.34 0.33 0.33 0.34 0.33 0.33 0.34 0.33 0.33 0.34 0.33 0.33 0.34 0.33 0.33 0.34 0.33 0.33 0.34 0.33 0.33 0.34 0.33 0.33 0.34 0.33 0.33 0.34 0.33 0.33 0.34 0.33 0.33 0.34 0.33 0.33 0.34 0.33 0.33 0.34 0.33 0.33 0.34 0.33 0.33 0.34 0.33 0.33 0.34 0.33 0.33 0.34 0.33 0.33 0.34 0.33 0.33 0.34 0.33 0.33 0.34 0.33 0.33 0.34 0.33 0.33 0.34 0.33 0.33 0.34 0.33 0.33 0.34 0.33 0.33 0.34 0.33 0.33 0.34 0.33 0.33 0.34 0.33 0.33 0.34 0.33 0.33 0.34 0.33 0.33 0.34 0.33 0.33 0.34 0.33 0.33 0.34 0.33 0.33 0.34 0.33 0.33 0.34 0.33 0.33 0.34 0.33 0.33 0.34 0.33 0.33 0.34 0.33 0.33 0.34 0.33 0.33 0.34 0.33 0.33 0.34 0.33 0.33 0.34 0.33 0.33 0.34 0.33 0.33 0.34 0.33 0.33 0.34 0.33 0.33 0.34 0.33 0.33 0.34 0.33 0.33 0.34 0.33 0.33 0.34 0.33 0.33 0.34 0.33 0.33 0.34 0.33 0.33 0.34 0.33 0.33 0.34 0.33 0.33 0.34 0.33 0.33 0.34 0.33 0.33 0.34 0.33 0.33 0.34 0.33 0.33 0.34 0.33 0.33 0.34 0.33 0.33 0.34 0.33 0.33 0.34 0.33 0.33 0.34 0.33 0.33 0.34 0.33 0.33 0.34 0.33 0.33 0.34 0.33 0.33 0.34 0.33 0.33 0.34 0.33 0.33 0.34 0.33 0.33 0.34 0.33 0.33 0.34 0.33 0.33 0.34 0.33 0.33 0.34 0.33 0.33 0.34 0.33 0.33 0.34 0.33 0.33 0.34 0.33 0.33 0.34 0.33 0.33 0.34 0.33 0.33 0.34 0.33 0.33 0.34 0.33 0.33 0.34 0.33 0.33 0.34 0.33 0.33 0.34 0.33 0.33 0.34 0.33 0.33 0.34 0.33 0.33 0.34 0.33 0.33 0.34 0.33 0.33 0.34 0.33 0.33 0.34 0.33 0.33 0.34 0.33 0.33 0.34 0.33 0.33 0.34 0.33 0.33 0.34 0.33 0.33 0.34 0.33 0.33 0.34 0.33 0.33 0.34 0.33 0.33 0.34 0.33 0.33 0.34 0.33 0.33 0.34 0.33 0.33 0.34 0.33 0.33 0.34 0.33 0.33 0.34 0.33 0.33 0.34 0.33 0.33 0.34 0.33 0.33 0.34 0.33 0.33 0.34 0.33 0.33 0.34 0.33 0.33 0.34 0.33 0.33 0.34 0.33 0.33 0.34 0.33 0.33 0.34 0.33 0.33 0.34 0.33 0.33 0.34 0.33 0.33 0.34 0.33 0.33 0.34 0.33 0.33 0.34 0.33 0.33 0.34 0.33 0.33 0.34 0.33 0.33 0.34 0.33 0.33 0.34 0.33 0.33 0.34 0.33 0.33 0.34 0.33 0.33 0.34 0.33 0.33 0.34 0.33 0.33 0.34 0.33 0.33 0.34 0.33 0.33 0.34 0.33 0.33 0.34 0.33 0.33 0.34 0.33 0.33 0.34 0.33 0.33 0.34 0.33 0.33 0.34 0.33 0.33 0.34 0.33 0.33 0.34 0.33 0.33 0.34 0.33 0.33 0.34 0.33 0.33 0.34 0.33 0.33 0.34 0.33 0.33 0.34 0.33 0.33 0.34 0.33 0.33 0.34 0.33 0.33 0.34 0.33 0.33 0.34 0.33 0.33 0.34 0.33 0.33 0.34 0.33 0.33 0.34 0.33 0.33 0.34 0.33 0.33 0.34 0.33 0.33 0.34 0.33 0.33 0.34 0.33 0.33 0.34 0.33 0.33 0.34 0.33 0.33 0.34 0.33 0.33 0.34 0.33 0.33 0.34 0.33 0.33 0.34 0.33 0.33 0.34 0.33 0.33 0.34 0.33 0.33 0.34 0.33 0.33 0.34 0.33 0.33 0.34 0.33 0.33 0.34 0.33 0.33 0.34 0.33 0.33 0.34 0.33 0.33 0.34 0.33 0.33 0.34 0.33 0.33 0.34 0.33 0.33 0.34 0.33 0.33 0.34 0.33 0.33 0.34 0.33 0.33 0.34 0.33 0.33 0.34 0.33 0.33 0.34 0.33 0.33 0.34 0.33 0.33 0.34 0.33 0.33 0.34 0.33 0.33 0.34 0.33 0.33 0.34 0.33 0.33 0.34 0.33 0.33 0.34 0.33 0.33 0.34 0.33 0.33 0.34 0.33 0.33 0.34 0.33 0.33 0.34 0.33 0.33 0.34 0.33 0.33 0.34 0.33 0.33 0.34 0.33 0.33 0.34 0.33 0.33 0.34 0.33 0.33 0.34 0.33 0.33 0.34 0.33 0.33 0.34 0.33 0.33 0.34 0.33 0.33 0.34 0.33 0.33 0.34 0.33 0.33 0.34 0.33 0.33 0.34 0.33 0.33 0.34 0.33 0.33 0.34 0.33 0.33 0.34 0.33 0.33 0.34 0.33 0.33 0.34 0.33 0.33 0.34 0.33 0.33 0.34 0.33 0.33 0.34 0.33 0.33 0.34 0.33 0.33 0.34 0.33 0.33 0.34 0.33 0.33 0.34 0.33 0.33 0.34 0.33 0.33 0.34 0.33 0.33 0.34 0.33 0.33 0.34 0.33 0.33 0.34 0.33 0.33 0.34 0.33 0.33 0.34 0.33 0.33 0.34 0.33 0.33 0.34 0.33 0.33 0.34 0.33 0.33 0.34 0.33 0.33 0.34 0.33 0.33 0.34 0.33 0.33 0.34 0.33 0.33 0.34 0.33 0.33 0.34 0.33 0.33 0.34 0.33 0.33 0.34 0.33 0.33 0.34 0.33 0.33 0.34 0.33 0.33 0.34 0.33 0.33 0.34 0.33 0.33 0.34 0.33 0.33 0.34 0.33 0.33 0.34 0.33 0.33 0.34 0.33 0.33 0.34 0.33 0.33 0.34 0.33 0.33 0.34 0.33 0.33 0.34 0.33 0.33 0.34 0.33 0.33 0.34 0.33 0.33 0.34 0.33 0.33 0.34 0.33 0.33 0.34 0.33 0.33 0.34 0.33 0.33 0.34 0.33 0.33 0.34 0.33 0.33 0.34 0.33 0.33 0.34 0.33 0.33 0.34 0.33 0.33 0.34 0.33 0.33 0.34 0.33 0.33 0.34 0.33 0.33 0.34 0.33 0.33 0.34 0.33 0.33 0.34 0.33 0.33 0.34 0.33 0.33 0.34 0.33 0.33 0.34 0.33 0.33 0.34 0.33 0.33 0.34 0.33 0.33 0.34 0.33 0.33 0.34 0.33 0.33 0.34 0.33 0.33 0.34 0.33 0.33 0.34 0.33 0.33 0.34 0.33 0.33 0.34 0.33 0.33 0.34 0.33 0.33 0.34 0.33 0.33 0.34 0.33 0.33 0.34 0.33 0.33 0.34 0.33 0.33 0.34 0.33 0.33 0.34 0.33 0.33 0.34 0.33 0.33 0.34 0.33 0.33 0.34 0.33 0.33 0.34 0.33 0.33 0.34 0.33 0.33 0.34 0.33 0.33 0.34 0.33 0.33 0.34 0.33 0.33 0.34 0.33 0.33 0.34 0.33 0.33 0.34 0.33 0.33 0.34 0.33 0.33 0.34 0.33 0.33 0.34 0.33 0.33 0.34 0.33 0.33 0.34 0.33 0.33 0.34 0.33 0.33 0.34 0.33 0.33 0.34 0.33 0.33 0.34 0.33 0.33 0.34 0.33 0.33 0.34 0.33 0.33 0.34 0.33 0.33 0.34 0.33 0.33 0.34 0.33 0.33 0.34 0.33 0.33 0.34 0.33 0.33 0.34 0.33 0.33 0.34 0.33 0.33 0.34 0.33 0.33 0.34 0.33 0.33 0.34 0.33 0.33 0.34 0.33 0.33 0.34 0.33 0.33 0.34 0.33 0.33 0.34 0.33 0.33 0.34 0.33 0.33 0.34 0.33 0.33 0.34 0.33 0.33 0.34 0.33 0.33 0.34 0.33 0.33 0.34 0.33 0.33 0.34 0.33 0.33 0.34 0.33 0.33 0.34 0.33 0.33 0.34 0.33 0.33 0.34 0.33 0.33 0.34 0.33 0.33 0.34 0.33 0.33 0.34 0.33 0.33 0.34 0.33 0.33 0.34 0.33 0.33 0.34 0.33 0.33 0.34 0.33 0.33 0.34 0.33 0.33 0.34 0.33 0.33 0.34 0.33 0.33 0.34 0.33 0.33 0.34 0.33 0.33 0.34 0.33 0.33 0.34 0.33 0.33 0.34 0.33 0.33 0.34 0.33 0.33 0.34 0.33 0.33 0.34 0.33 0.33 0.34 0.33 0.33 0.34 0.33 0.33 0.34 0.33 0.33 0.34 0.33 0.33 0.34 0.33 0.33 0.34 0.33 0.33 0.34 0.33 0.33 0.34 0.33 0.33 0.34 0.33 0.33 0.34 0.33 0.33 0.34 0.33 0.33 0.34 0.33 0.33 0.34 0.33 0.33 0.34 0.33 0.33 0.34 0.33 0.33 0.34 0.33 0.33 0.34 0.33 0.33 0.34 0.33 0.33 0.34 0.33 0.33 0.34 0.33 0.33 0.34 0.33 0.33 0.34 0.33 0.33 0.34 0.33 0.33 0.34 0.33 0.33 0.34 0.33 0.33 0.34 0.33 0.33 0.34 0.33 0.33 0.34 0.33 0.33 0.34 0.33 0.33 0.34 0.33 0.33 0.34 0.33 0.33 0.34 0.33 0.33 0.34 0.33 0.33 0.34 0.33 0.33 0.34 0.33 0.33 0.34 0.33 0.33 0.34 0.33 0.33 0.34 0.33 0.33 0.34 0.33 0.33 0.34 0.33 0.33 0.34 0.33 0.33 0.34 0.33 0.33 0.34 0.33 0.33 0.34 0.33 0.33 0.34 0.33 0.33 0.34 0.33 0.33 0.34 0.33 0.33 0.34 0.33 0.33 0.34 0.33 0.33 0.34 0.33 0.33 0.34 0.33 0.33 0.34 0.33 0.33 0.34 0.33 0.33 0.34 0.33 0.33 0.34 0.33 0.33 0.34 0.33 0.33 0.34 0.33 0.33 0.34 0.33 0.33 0.34 0.33 0.33 0.34 0.33 0.33 0.34 0.33 0.33 0.34 0.33 0.33 0.34 0.33 0.33 0.34 0.33 0.33 0.34 0.33 0.33 0.34 0.33 0.33 0.34 0.33 0.33 0.34 0.33 0.33 0.34 0.33 0.33 0.34 0.33 0.33 0.34 0.33 0.33 0.34 0.33 0.33 0.34 0.33 0.33 0.34 0.33 0.33 0.34 0.33 0.33 0.34 0.33 0.33 0.34 0.33 0.33 0.34 0.33 0.33 0.34 0.33 0.33 0.34 0.33 0.33 0.34 0.33 0.33 0.34 0.33 0.33 0.34 0.33 0.33 0.34 0.33 0.33 0.34 0.33 0.33 0.34 0.33 0.33 0.34 0.33 0.33 0.34 0.33 0.33 0.34 0.33 0.33 0.34 0.33 0.33 0.34 0.33 0.33 0.34 0.33 0.33 0.34 0.33 0.33 0.34 0.33 0.33 0.34 0.33 0.33 0.34 0.33 0.33 0.34 0.33 0.33 0.34 0.33 0.33 0.34 0.33 0.33 0.34 0.33 0.33 0.34 0.33 0.33 0.34 0.33 0.33 0.34 0.33 0.33 0.34 0.33 0.33 0.34 0.33 0.33 0.34 0.33 0.33 0.34 0.33 0.33 0.34 0.33 0.33 0.34 0.33 0.33 0.34 0.33 0.33 0.34 0.33 0.33 0.34 0.33 0.33 0.34 0.33 0.33 0.34 0.33 0.33 0.34 0.33 0.33 0.34 0.33 0.33 0.34 0.33 0.33 0.34 0.33 0.33 0.34 0.33 0.33 0.34 0.33 0.33 0.34 0.33 0.33 0.34 0.33 0.33 0.34 0.33 0.33 0.34 0.33 0.33 0.34 0.33 0.33 0.34 0.33 0.33 0.34 0.33 0.33 0.34 0.33 0.33 0.34 0.33 0.33 0.34 0.33 0.33 0.34 0.33 0.33 0.34 0.33 0.33 0.34 0.33 0.33 0.34 0.33 0.33 0.34 0.33 0.33 0.34 0.33 0.33 0.34 0.33 0.33 0.34 0.33 0.33 0.34 0.33 0.33 0.34 0.33 0.33 0.34 0.33 0.33 0.34 0.33 0.33 0.34 0.33 0.33 0.34 0.33 0.33 0.34 0.33 0.33 0.34 0.33 0.33 0.34 0.33 0.33 0.34 0.33 0.33 0.34 0.33 0.33 0.34 0.33 0.33 0.34 0.33 0.33 0.34 0.33 0.33 0.34 0.33 0.33 0.34 0.33 0.33 0.34 0.33 0.33 0.34 0.33 0.33 0.34 0.33 0.33 0.34 0.33 0.33 0.34 0.33 0.33 0.34 0.33 0.33 0.34 0.33 0.33 0.34 0.33 0.33 0.34 0.33 0.33 0.34 0.33 0.33 0.34 0.33 0.33 0.34 0.33 0.33 0.34 0.33 0.33 0.34 0.33 0.33 0.34 0.33 0.33 0.34 0.33 0.33 0.34 0.33 0.33 0.34 0.33 0.33 0.34 0.33 0.33 0.34 0.33 0.33 0.34 0.33 0.33 0.34 0.33 0.33 0.34 0.33 0.33 0.34 0.33 0.33 0.34 0.33 0.33 0.34 0.33 0.33 0.34 0.33 0.33 0.34 0.33 0.33 0.34 0.33 0.33 0.34 0.33 0.33 0.34 0.33 0.33 0.34 0.33 0.33 0.34 0.33 0.33 0.34 0.33 0.33 0.34 0.33 0.33 0.34 0.33 0.33 0.34 0.33 0.33 0.34 0.33 0.33 0.34 0.33 0.33 0.34 0.33 0.33 0.34 0.33 0.33 0.34 0.33 0.33 0.34 0.33 0.33 0.34 0.33 0.33 0.34 0.33 0.33 0.34 0.33 0.33 0.34 0.33 0.33 0.34 0.33 0.33 0.34 0.33 0.33 0.34 0.33 0.33 0.34 0.33 0.33 0.34 0.33 0.33 0.34 0.33 0.33 0.34 0.33 0.33 0.34 0.33 0.33 0.34 0.33 0.33 0.34 0.33 0.33 0.34 0.33 0.33 0.34 0.33 0.33 0.34 0.33 0.33 0.34 0.33 0.33 0.34 0.33 0.33 0.34 0.33 0.33 0.34 0.33 0.33 0.34 0.33 0.33 0.34 0.33 0.33 0.34 0.33 0.33 0.34 0.33 0.33 0.34 0.33 0.33 0.34 0.33 0.33 0.34 0.33 0.33 0.34 0.33 0.33 0.34 0.33 0.33 0.34 0.33 0.33 0.34 0.33 0.33 0.34 0.33 0.33 0.34 0.33 0.33 0.34 0.33 0.33 0.34 0.33 0.33 0.34 0.33 0.33 0.34 0.33 0.33 0.34 0.33 0.33 0.34 0.33 0.33 0.34 0.33 0.33 0.34 0.33 0.33 0.34 0.33 0.33 0.34 0.33 0.33 0.34 0.33 0.33 0.34 0.33 0.33 0.34 0.33 0.33 0.34 0.33 0.33 0.34 0.33 0.33 0.34 0.33 0.33 0.34 0.33 0.33 0.34 0.33 0.33 0.34 0.33 0.33 0.34 0.33 0.33 0.34 0.33 0.33 0.34 0.33 0.33 0.34 0.33 0.33 0.34 0.33 0.33 0.34 0.33 0.33 0.34 0.33 0.33 0.34 0.33 0.33 0.34 0.33 0.33 0.34 0.33 0.33 0.34 0.33 0.33 0.34 0.33 0.33 0.34 0.33 0.33 0.34 0.33 0.33 0.34 0.33 0.33 0.34 0.33 0.33 0.34 0.33 0.33 0.34 0.33 0.33 0.34 0.33 0.33 0.34 0.33 0.33 0.34 0.33 0.33 0.34 0.33 0.33 0.34 0.33 0.33 0.34 0.33 0.33 0.34 0.33 0.33 0.34 0.33 0.33 0.34 0.33 0.33 0.34 0.33 0.33 0.34 0.33 0.33 0.34 0.33 0.33 0.34 0.33 0.33 0.34 0.33 0.33 0.34 0.33 0.33 0.34 0.33 0.33 0.34 0.33 0.33 0.34 0.33 0.33 0.34 0.33 0.33 0.34 0.33 0.33 0.34 0.33 0.33 0.34 0.33 0.33 0.34 0.33 0.33 0.34 0.33 0.33 0.34 0.33 0.33 0.34 0.33 0.33 0.34 0.33 0.33 0.34 0.33 0.33 0.34 0.33 0.33 0.34 0.33 0.33 0.34 0.33 0.33 0.34 0.33 0.33 0.34 0.33 0.33 0.34 0.33 0.33 0.34 0.33 0.33 0.34 0.33 0.33 0.34 0.33 0.33 0.34 0.33 0.33 0.34 0.33 0.33 0.34 0.33 0.33 0.34 0.33 0.33 0.34 0.33 0.33 0.34 0.33 0.33 0.34 0.33 0.33 0.34 0.33 0.33 0.34 0.33 0.33 0.34 0.33 0.33 0.34 0.33 0.33 0.34 0.33 0.33 0.34 0.33 0.33 0.34 0.33 0.33 0.34 0.33 0.33 0.34 0.33 0.33 0.34 0.33 0.33 0.34 0.33 0.33 0.34 0.33 0.33 0.34 0.33 0.33 0.34 0.33 0.33 0.34 0.33 0.33 0.34 0.33 0.33 0.34 0.33 0.33 0.34 0.33 0.33 0.34 0.33 0.33 0.34 0.33 0.33 0.34 0.33 0.33 0.34 0.33 0.33 0.34 0.33 0.33 0.34 0.33 0.33 0.34 0.33 0.33 0.34 0.33 0.33 0.34 0.33 0.33 0.34 0.33 0.33 0.34 0.33 0.33 0.34 0.33 0.33 0.34 0.33 0.33 0.34 0.33 0.33 0.34 0.33 0.33 0.34 0.33 0.33 0.34 0.33 0.33 0.34 0.33 0.33 0.34 0.33 0.33 0.34 0.33 0.33 0.34 0.33 0.33 0.34 0.33 0.33 0.34 0.33 0.33 0.34 0.33 0.33 0.34 0.33 0.33 0.34 0.33 0.33 0.34 0.33 0.33 0.34 0.33 0.33 0.34 0.33 0.33 0.34 0.33 0.33 0.34 0.33 0.33 0.34 0.33 0.33 0.34 0.33 0.33 0.34 0.33 0.33 0.34 0.33 0.33 0.34 0.33 0.33 0.34 0.33 0.33 0.34 0.33 0.33 0.34 0.33 0.33 0.34 0.33 0.33 0.34 0.33 0.33 0.34 0.33 0.33 0.34 0.33 0.33 0.34 0.33 0.33 0.34 0.33 0.33 0.34 0.33 0.33 0.34 0.33 0.33 0.34 0.33 0.33 0.34 0.33 0.33 0.34 0.33 0.33 0.34 0.33 0.33 0.34 0.33 0.33 0.34 0.33 0.33 0.34 0.33 0.33 0.34 0.33 0.33 0.34 0.33 0.33 0.34 0.33 0.33 0.34 0.33 0.33 0.34 0.33 0.33 0.34 0.33 0.33 0.34 0.33 0.33 0.34 0.33 0.33 0.34 0.33 0.33 0.34 0.33 0.33 0.34 0.33 0.33 0.34 0.33 0.33 0.34 0.33 0.33 0.34 0.33 0.33 0.34 0.33 0.33 0.34 0.33 0.33 0.34 0.33 0.33 0.34 0.33 0.33 0.34 0.33 0.33 0.34 0.33 0.33 0.34 0.33 0.33 0.34 0.33 0.33 0.34 0.33 0.33 0.34 0.33 0.33 0.34 0.33 0.33 0.34 0.33 0.33 0.34 0.33 0.33 0.34 0.33 0.33 0.34 0.33 0.33 0.34 0.33 0.33 0.34 0.33 0.33 0.34 0.33 0.33 0.34 0.33 0.33 0.34 0.33 0.33 0.34 0.33 0.33 0.34 0.33 0.33 0.34 0.33 0.33 0.34 0.33 0.33 0.34 0.33 0.33 0.34 0.33 0.33 0.34 0.33 0.33 0.34 0.33 0.33 0.34 0.33 0.33 0.34 0.33 0.33 0.34 0.33 0.33 0.34 0.33 0.33 0.34 0.33 0.33 0.34 0.33 0.33 0.34 0.33 0.33 0.34 0.33 0.33 0.34 0.33 0.33 0.34 0.33 0.33 0.34 0.33 0.33 0.34 0.33 0.33 0.34 0.33 0.33 0.34 0.33 0.33 0.34 0.33 0.33 0.34 0.33 0.33 0.34 0.33 0.33 0.34 0.33 0.33 0.34 0.33 0.33 0.34 0.33 0.33 0.34 0.33 0.33 0.34 0.33 0.33 0.34 0.33 0.33 0.34 0.33 0.33 0.34 0.33 0.33 0.34 0.33 0.33 0.34 0.33 0.33 0.34 0.33 0.33 0.34 0.33 0.33 0.34 0.33 0.33 0.34 0.33 0.33 0.34 0.33 0.33 0.34 0.33 0.33 0.34 0.33 0.33 0.34 0.33 0.33 0.34 0.33 0.33 0.34 0.33 0.33 0.34 0.33 0.33 0.34 0.33 0.33 0.34 0.33 0.33 0.34 0.33 0.33 0.34 0.33 0.33 0.34 0.33 0.33 0.34 0.33 0.33 0.34 0.33 0.33 0.34 0.33 0.33 0.34 0.33 0.33 0.34 0.33 0.33 0.34 0.33 0.33 0.34 0.33 0.33 0.34 0.33 0.33 0.34 0.33 0.33 0.34 0.33 0.33 0.34 0.33 0.33 0.34 0.33 0.33 0.34 0.33 0.33 0.34 0.33 0.33 0.34 0.33 0.33 0.34 0.33 0.33 0.34 0.33 0.33 0.34 0.33 0.33 0.34 0.33 0.33 0.34 0.33 0.33 0.34 0.33 0.33 0.34 0.33 0.33 0.34 0.33 0.33 0.34 0.33 0.33 0.34 0.33 0.33 0.34 0.33 0.33 0.34 0.33 0.33 0.34 0.33 0.33 0.34 0.33 0.33 0.34 0.33 0.33 0.34 0.33 0.33 0.34 0.33 0.33 0.34 0.33 0.33 0.34 0.33 0.33 0.34 0.33 0.33 0.34 0.33 0.33 0.34 0.33 0.33 0.34 0.33 0.33 0.34 0.33 0.33 0.34 0.33 0.33 0.34 0.33 0.33 0.34 0.33 0.33 0.34 0.33 0.33 0.34 0.33 0.33 0.34 0.33 0.33 0.34 0.33 0.33 0.34 0.33 0.33 0.34 0.33 0.33 0.34 0.33 0.33 0.34 0.33 0.33 0.34 0.33 0.33 0.34 0.33 0.33 0.34 0.33 0.33 0.34 0.33 0.33 0.34 0.33 0.33 0.34 0.33 0.33 0.34 0.33 0.33 0.34 0.33 0.33 0.34 0.33 0.33 0.34 0.33 0.33 0.34 0.33 0.33 0.34 0.33 0.33 0.34 0.33 0.33 0.34 0.33 0.33 0.34 0.33 0.33 0.34 0.33 0.33 0.34 0.33 0.33 0.34 0.33 0.33 0.34 0.33 0.33 0.34 0.33 0.33 0.34 0.33 0.33 0.34 0.33 0.33 0.34 0.33 0.33 0.34 0.33 0.33 0.34 0.33 0.33 0.34 0.33 0.33 0.34 0.33 0.33 0.34 0.33 0.33 0.34 0.33 0.33 0.34 0.33 0.33 0.34 0.33 0.33 0.34 0.33 0.33 0.34 0.33 0.33 0.34 0.33 0.33 0.34 0.33 0.33 0.34 0.33 0.33 0.34 0.33 0.33 0.34 0.33 0.33 0.34 0.33 0.33 0.34 0.33 0.33 0.34 0.33 0.33 0.34 0.33 0.33 0.34 0.33 0.33 0.34 0.33 0.33 0.34 0.33 0.33 0.34 0.33 0.33 0.34 0.33 0.33 0.34 0.33 0.33 0.34 0.33 0.33 0.34 0.33 0.33 0.34 0.33 0.33 0.34 0.33 0.33 0.34 0.33 0.33 0.34 0.33 0.33 0.34 0.33 0.33 0.34 0.33 0.33 0.34 0.33 0.33 0.34 0.33 0.33 0.34 0.33 0.33 0.34 0.33 0.33 0.34 0.33 0.33 0.34 0.33 0.33 0.34 0.33 0.33 0.34 0.33 0.33 0.34 0.33 0.33 0.34 0.33 0.33 0.34 0.33 0.33 0.34 0.33 0.33 0.34 0.33 0.33 0.34 0.33 0.33 0.34 0.33 0.33 0.34 0.33 0.33 0.34 0.33 0.33 0.34 0.33 0.33 0.34 0.33 0.33 0.34 0.33 0.33 0.34 0.33 0.33 0.34 0.33 0.33 0.34 0.33 0.33 0.34 0.33 0.33 0.34 0.33 0.33 0.34 0.33 0.33 0.34 0.33 0.33 0.34 0.33 0.33 0.34 0.33 0.33 0.34 0.33 0.33 0.34 0.33 0.33 0.34 0.33 0.33 0.34 0.33 0.33 0.34 0.33 0.33 0.34 0.33 0.33 0.34 0.33 0.33 0.34 0.33 0.33 0.34 0.33 0.33 0.34 0.33 0.33 0.34 0.33 0.33 0.34 0.33 0.33 0.34 0.33 0.33 0.34 0.33 0.33 0.34 0.33 0.33 0.34 0.33 0.33 0.34 0.33 0.33 0.34 0.33 0.33 0.34 0.33 0.33 0.34 0.33 0.33 0.34 0.33 0.33 0.34 0.33 0.33 0.34 0.33 0.33 0.34 0.33 0.33 0.34 0.33 0.33 0.34 0.33 0.33 0.34 0.33 0.33 0.34 0.33 0.33 0.34 0.33 0.33 0.34 0.33 0.33 0.34 0.33 0.33 0.34 0.33 0.33 0.34 0.33 0.33 0.34 0.33 0.33 0.34 0.33 0.33 0.34 0.33 0.33 0.34 0.33 0.33 0.34 0.33 0.33 0.34 0.33 0.33 0.34 0.33 0.33 0.34 0.33 0.33 0.34 0.33 0.33 0.34 0.33 0.33 0.34 0.33 0.33 0.34 0.33 0.33 0.34 0.33 0.33 0.34 0.33 0.33 0.34 0.33 0.33 0.34 0.33 0.33 0.34 0.33 0.33 0.34 0.33 0.33 0.34 0.33 0.33 0.34 0.33 0.33 0.34 0.33 0.33 0.34 0.33 0.33 0.34 0.33 0.33 0.34 0.33 0.33 0.34 0.33 0.33 0.34 0.33 0.33 0.34 0.33 0.33 0.34 0.33 0.33 0.34 0.33 0.33 0.34 0.33 0.33 0.34 0.33 0.33 0.34 0.33 0.33 0.34 0.33 0.33 0.34 0.33 0.33 0.34 0.33 0.33 0.34 0.33 0.33 0.34 0.33 0.33 0.34 0.33 0.33 0.34 0.33 0.33 0.34 0.33 0.33 0.34 0.33 0.33 0.34 0.33 0.33 0.34 0.33 0.33 0.34 0.33 0.33 0.34 0.33 0.33 0.34 0.33 0.33 0.34 0.33 0.33 0.34 0.33 0.33 0.34 0.33 0.33 0.34 0.33 0.33 0.34 0.33 0.33 0.34 0.33 0.33 0.34 0.33 0.33 0.34 0.33 0.33 0.34 0.33 0.33 0.34 0.33 0.33 0.34 0.33 0.33 0.34 0.33 0.33 0.34 0.33 0.33 0.34 0.33 0.33 0.34 0.33 0.33 0.34 0.33 0.33 0.34 0.33 0.33 0.34 0.33 0.33 0.34 0.33 0.33 0.34 0.33 0.33 0.34 0.33 0.33 0.34 0.33 0.33 0.34 0.33 0.33 0.34 0.33 0.33 0.34 0.33 0.33 0.34 0.33 0.33 0.34 0.33 0.33 0.34 0.33 0.33 0.34 0.33 0.33 0.34 0.33 0.33 0.34 0.33 0.33 0.34 0.33 0.33 0.34 0.33 0.33 0.34 0.33 0.33 0.34 0.33 0.33 0.34 0.33 0.33 0.34 0.33 0.33 0.34 0.33 0.33 0.34 0.33 0.33 0.34 0.33 0.33 0.34 0.33 0.33 0.34 0.33 0.33 0.34 0.33 0.33 0.34 0.33 0.33 0.34 0.33 0.33 0.34 0.33 0.33 0.34 0.33 0.33 0.34 0.33 0.33 0.34 0.33 0.33 0.34 0.33 0.33 0.34 0.33 0.33 0.34 0.33 0.33 0.34 0.33 0.33 0.34 0.33 0.33 0.34 0.33 0.33 0.34 0.33 0.33 0.34 0.33 0.33 0.34 0.33 0.33 0.34 0.33 0.33 0.34 0.33 0.33 0.34 0.33 0.33 0.34 0.33 0.33 0.34 0.33 0.33 0.34 0.33 0.33 0.34 0.33 0.33 0.34 0.33 0.33 0.34 0.33 0.33 0.34 0.33 0.33 0.34 0.33 0.33 0.34 0.33 0.33 0.34 0.33 0.33 0.34 0.33 0.33 0.34 0.33 0.33 0.34 0.33 0.33 0.34 0.33 0.33 0.34 0.33 0.33 0.34 0.33 0.33 0.34 0.33 0.33 0.34 0.33 0.33 0.34 0.33 0.33 0.34 0.33 0.33 0.34 0.33 0.33 0.34 0.33 0.33 0.34 0.33 0.33 0.34 0.33 0.33 0.34 0.33 0.33 0.34 0.33 0.33 0.34 0.33 0.33 0.34 0.33 0.33 0.34 0.33 0.33 0.34 0.33 0.33 0.34 0.33 0.33 0.34 0.33 0.33 0.34 0.33 0.33 0.34 0.33 0.33 0.34 0.33 0.33 0.34 0.33 0.33 0.34 0.33 0.33 0.34 0.33 0.33 0.34 0.33 0.33 0.34 0.33 0.33 0.34 0.33 0.33 0.34 0.33 0.33 0.34 0.33 0.33 0.34 0.33 0.33 0.34 0.33 0.33 0.34 0.33 0.33 0.34 0.33 0.33 0.34 0.33 0.33 0.34 0.33 0.33 0.34 0.33 0.33 0.34 0.33 0.33 0.34 0.33 0.33 0.34 0.33 0.33 0.34 0.33 0.33 0.34 0.33 0.33 0.34 0.33 0.33 0.34 0.33 0.33 0.34 0.33 0.33 0.34 0.33 0.33 0.34 0.33 0.33 0.34 0.33 0.33 0.34 0.33 0.33 0.34 0.33 0.33 0.34 0.33 0.33 0.34 0.33 0.33 0.34 0.33 0.33 0.34 0.33 0.33 0.34 0.33 0.33 0.34 0.33 0.33 0.34 0.33 0.33 0.34 0.33 0.33 0.34 0.33 0.33 0.34 0.33 0.33 0.34 0.33 0.33 0.34 0.33 0.33 0.34 0.33 0.33 0.34 0.33 0.33 0.34 0.33 0.33 0.34 0.33 0.33 0.34 0.33 0.33 0.34 0.33 0.33 0.34 0.33 0.33 0.34 0.33 0.33 0.34 0.33 0.33 0.34 0.33 0.33 0.34 0.33 0.33 0.34 0.33 0.33 0.34 0.33 0.33 0.34 0.33 0.33 0.34 0.33 0.33 0.34 0.33 0.33 0.34 0.33 0.33 0.34 0.33 0.33 0.34 0.33 0.33 0.34 0.33 0.33 0.34 0.33 0.33 0.34 0.33 0.33 0.34 0.33 0.33 0.34 0.33 0.33 0.34 0.33 0.33 0.34 0.33 0.33 0.34 0.33 0.33 0.34 0.33 0.33 0.34 0.33 0.33 0.34 0.33 0.33 0.34 0.33 0.33 0.34 0.33 0.33 0.34 0.33 0.33 0.34 0.33 0.33 0.34 0.33 0.33 0.34 0.33 0.33 0.34 0.33 0.33 0.34 0.33 0.33 0.34 0.33 0.33 0.34 0.33 0.33 0.34 0.33 0.33 0.34 0.33 0.33 0.34 0.33 0.33 0.34 0.33 0.33 0.34 0.33 0.33 0.34 0.33 0.33 0.34 0.33 0.33 0.34 0.33 0.33 0.34 0.33 0.33 0.34 0.33 0.33 0.34 0.33 0.33 0.34 0.33 0.33 0.34 0.33 0.33 0.34 0.33 0.33 0.34 0.33 0.33 0.34 0.33 0.33 0.34 0.33 0.33 0.34 0.33 0.33 0.34 0.33 0.33 0.34 0.33 0.33 0.34 0.33 0.33 0.34 0.33 0.33 0.34 0.33 0.33 0.34 0.33 0.33 0.34 0.33 0.33 0.34 0.33 0.33 0.34 0.33 0.33 0.34 0.33 0.33 0.34 0.33 0.33 0.34 0.33 0.33 0.34 0.33 0.33 0.34 0.33 0.33 0.34 0.33 0.33 0.34 0.33 0.33 0.34 0.33 0.33 0.34 0.33 0.33 0.34 0.33 0.33 0.34 0.33 0.33 0.34 0.33 0.33 0.34 0.33 0.33 0.34 0.33 0.33 0.34 0.33 0.33 0.34 0.33 0.33 0.34 0.33 0.33 0.34 0.33 0.33 0.34 0.33 0.33 0.34 0.33 0.33 0.34 0.33 0.33 0.34 0.33 0.33 0.34 0.33 0.33 0.34 0.33 0.33 0.34 0.33 0.33 0.34 0.33 0.33 0.34 0.33 0.33 0.34 0.33 0.33 0.34 0.33 0.33 0.34 0.33 0.33 0.34 0.33 0.33 0.34 0.33 0.33 0.34 0.33 0.33 0.34 0.33 0.33 0.34 0.33 0.33 0.34 0.33 0.33 0.34 0.33 0.33 0.34 0.33 0.33 0.34 0.33 0.33 0.34 0.33 0.33 0.34 0.33 0.33 0.34 0.33 0.33 0.34 0.33 0.33 0.34 0.33 0.33 0.34 0.33 0.33 0.34 0.33 0.33 0.34 0.33 0.33 0.34 0.33 0.33 0.34 0.33 0.33 0.34 0.33 0.33 0.34 0.33 0.33 0.34 0.33 0.33 0.34 0.33 0.33 0.34 0.33 0.33 0.34 0.33 0.33 0.34 0.33 0.33 0.34 0.33 0.33 0.34 0.33 0.33 0.34 0.33 0.33 0.34 0.33 0.33 0.34 0.33 0.33 0.34 0.33 0.33 0.34 0.33 0.33 0.34 0.33 0.33 0.34 0.33 0.33 0.34 0.33 0.33 0.34 0.33 0.33 0.34 0.33 0.33 0.34 0.33 0.33 0.34 0.33 0.33 0.34 0.33 0.33 0.34 0.33 0.33 0.34 0.33 0.33 0.34 0.33 0.33 0.34 0.33 0.33 0.34 0.33 0.33 0.34 0.33 0.33 0.34 0.33 0.33 0.34 0.33 0.33 0.34 0.33 0.33 0.34 0.33 0.33 0.34 0.33 0.33 0.34 0.33 0.33 0.34 0.33 0.33 0.34 0.33 0.33 0.34 0.33</probabilities>
		</cpt>
	</nodes>
	<extensions>
		<genie version="1.0" app="GeNIe 2.1.380.0" name="Network1" faultnameformat="nodestate">
			<node id="Farm">
				<name>Farm</name>
				<interior color="e5f6f7" />
				<outline color="000080" />
				<font color="000000" name="Arial" size="8" />
				<position>744 61 787 87</position>
				<comment>Food</comment>
				<barchart active="true" width="128" height="108" />
			</node>
			<node id="Well">
				<name>Well</name>
				<interior color="e5f6f7" />
				<outline color="000080" />
				<font color="000000" name="Arial" size="8" />
				<position>975 61 1016 86</position>
				<comment>Water</comment>
				<barchart active="true" width="128" height="108" />
			</node>
			<node id="Mill">
				<name>Mill</name>
				<interior color="e5f6f7" />
				<outline color="000080" />
				<font color="000000" name="Arial" size="8" />
				<position>586 201 623 224</position>
				<barchart active="true" width="128" height="108" />
			</node>
			<node id="Pig_Farm">
				<name>Pig_Farm</name>
				<interior color="e5f6f7" />
				<outline color="000080" />
				<font color="000000" name="Arial" size="8" />
				<position>827 203 864 226</position>
				<barchart active="true" width="128" height="108" />
			</node>
			<node id="Brewery">
				<name>Brewery</name>
				<interior color="e5f6f7" />
				<outline color="000080" />
				<font color="000000" name="Arial" size="8" />
				<position>1087 202 1124 225</position>
				<barchart active="true" width="128" height="108" />
			</node>
			<node id="Bakery">
				<name>Bakery</name>
				<interior color="e5f6f7" />
				<outline color="000080" />
				<font color="000000" name="Arial" size="8" />
				<position>590 341 627 364</position>
				<barchart active="true" width="128" height="108" />
			</node>
			<node id="Slaughterhouse">
				<name>Slaughterhouse</name>
				<interior color="e5f6f7" />
				<outline color="000080" />
				<font color="000000" name="Arial" size="8" />
				<position>939 355 976 378</position>
				<barchart active="true" width="128" height="108" />
			</node>
			<node id="Fishery">
				<name>Fishery</name>
				<interior color="e5f6f7" />
				<outline color="000080" />
				<font color="000000" name="Arial" size="8" />
				<position>337 64 414 101</position>
				<comment>Food</comment>
				<barchart active="true" width="128" height="108" />
			</node>
			<node id="Granite_Mine">
				<name>Granite_Mine</name>
				<interior color="e5f6f7" />
				<outline color="000080" />
				<font color="000000" name="Arial" size="8" />
				<position>387 496 464 533</position>
				<barchart active="true" width="128" height="108" />
			</node>
			<node id="Coal_Mine">
				<name>Coal_Mine</name>
				<interior color="e5f6f7" />
				<outline color="000080" />
				<font color="000000" name="Arial" size="8" />
				<position>725 497 802 534</position>
				<barchart active="true" width="128" height="108" />
			</node>
			<node id="Hunter">
				<name>Hunter</name>
				<interior color="e5f6f7" />
				<outline color="000080" />
				<font color="000000" name="Arial" size="8" />
				<position>122 63 199 100</position>
				<comment>Food</comment>
				<barchart active="true" width="128" height="108" />
			</node>
			<node id="Iron_Mine">
				<name>Iron_Mine</name>
				<interior color="e5f6f7" />
				<outline color="000080" />
				<font color="000000" name="Arial" size="8" />
				<position>567 498 644 535</position>
				<barchart active="true" width="128" height="108" />
			</node>
			<node id="Gold_Mine">
				<name>Gold_Mine</name>
				<interior color="e5f6f7" />
				<outline color="000080" />
				<font color="000000" name="Arial" size="8" />
				<position>924 500 1001 537</position>
				<barchart active="true" width="128" height="108" />
			</node>
			<node id="Stonemason">
				<name>Stonemason</name>
				<interior color="e5f6f7" />
				<outline color="000080" />
				<font color="000000" name="Arial" size="8" />
				<position>114 350 191 387</position>
				<comment>STONE</comment>
				<barchart active="true" width="128" height="108" />
			</node>
			<node id="Iron_Smelter">
				<name>Iron_Smelter</name>
				<interior color="e5f6f7" />
				<outline color="000080" />
				<font color="000000" name="Arial" size="8" />
				<position>571 631 644 676</position>
				<barchart active="true" width="128" height="108" />
			</node>
			<node id="Mint">
				<name>Mint</name>
				<interior color="e5f6f7" />
				<outline color="000080" />
				<font color="000000" name="Arial" size="8" />
				<position>887 770 960 815</position>
				<barchart active="true" width="128" height="108" />
			</node>
			<node id="Armory">
				<name>Armory</name>
				<interior color="e5f6f7" />
				<outline color="000080" />
				<font color="000000" name="Arial" size="8" />
				<position>726 774 803 811</position>
				<barchart active="true" width="128" height="108" />
			</node>
			<node id="Headquarters">
				<name>Headquarters</name>
				<interior color="e5f6f7" />
				<outline color="000080" />
				<font color="000000" name="Arial" size="8" />
				<position>1092 900 1144 933</position>
				<barchart active="true" width="128" height="108" />
			</node>
			<node id="Barracks">
				<name>Barracks</name>
				<interior color="e5f6f7" />
				<outline color="000080" />
				<font color="000000" name="Arial" size="8" />
				<position>401 1098 453 1131</position>
				<barchart active="true" width="128" height="108" />
			</node>
			<node id="Guardhouse">
				<name>Guardhouse</name>
				<interior color="e5f6f7" />
				<outline color="000080" />
				<font color="000000" name="Arial" size="8" />
				<position>579 1098 631 1131</position>
				<barchart active="true" width="128" height="108" />
			</node>
			<node id="Watchtower">
				<name>Watchtower</name>
				<interior color="e5f6f7" />
				<outline color="000080" />
				<font color="000000" name="Arial" size="8" />
				<position>918 1098 970 1131</position>
				<barchart active="true" width="128" height="108" />
			</node>
			<node id="Fortress">
				<name>Fortress</name>
				<interior color="e5f6f7" />
				<outline color="000080" />
				<font color="000000" name="Arial" size="8" />
				<position>1079 1099 1131 1132</position>
				<barchart active="true" width="128" height="108" />
			</node>
			<node id="Catapult">
				<name>Catapult</name>
				<interior color="e5f6f7" />
				<outline color="000080" />
				<font color="000000" name="Arial" size="8" />
				<position>205 1095 282 1132</position>
				<barchart active="true" width="128" height="108" />
			</node>
			<node id="Game_Outcome">
				<name>Game_Outcome</name>
				<interior color="e5f6f7" />
				<outline color="000080" />
				<font color="000000" name="Arial" size="8" />
				<position>724 1271 804 1321</position>
				<barchart active="true" width="128" height="72" />
			</node>
		</genie>
	</extensions>
</smile>
